pessoa,emb_0,emb_1,emb_2,emb_3,emb_4,emb_5,emb_6,emb_7,emb_8,emb_9,emb_10,emb_11,emb_12,emb_13,emb_14,emb_15,emb_16,emb_17,emb_18,emb_19,emb_20,emb_21,emb_22,emb_23,emb_24,emb_25,emb_26,emb_27,emb_28,emb_29,emb_30,emb_31,emb_32,emb_33,emb_34,emb_35,emb_36,emb_37,emb_38,emb_39,emb_40,emb_41,emb_42,emb_43,emb_44,emb_45,emb_46,emb_47,emb_48,emb_49,emb_50,emb_51,emb_52,emb_53,emb_54,emb_55,emb_56,emb_57,emb_58,emb_59,emb_60,emb_61,emb_62,emb_63,emb_64,emb_65,emb_66,emb_67,emb_68,emb_69,emb_70,emb_71,emb_72,emb_73,emb_74,emb_75,emb_76,emb_77,emb_78,emb_79,emb_80,emb_81,emb_82,emb_83,emb_84,emb_85,emb_86,emb_87,emb_88,emb_89,emb_90,emb_91,emb_92,emb_93,emb_94,emb_95,emb_96,emb_97,emb_98,emb_99,emb_100,emb_101,emb_102,emb_103,emb_104,emb_105,emb_106,emb_107,emb_108,emb_109,emb_110,emb_111,emb_112,emb_113,emb_114,emb_115,emb_116,emb_117,emb_118,emb_119,emb_120,emb_121,emb_122,emb_123,emb_124,emb_125,emb_126,emb_127,emb_128,emb_129,emb_130,emb_131,emb_132,emb_133,emb_134,emb_135,emb_136,emb_137,emb_138,emb_139,emb_140,emb_141,emb_142,emb_143,emb_144,emb_145,emb_146,emb_147,emb_148,emb_149,emb_150,emb_151,emb_152,emb_153,emb_154,emb_155,emb_156,emb_157,emb_158,emb_159,emb_160,emb_161,emb_162,emb_163,emb_164,emb_165,emb_166,emb_167,emb_168,emb_169,emb_170,emb_171,emb_172,emb_173,emb_174,emb_175,emb_176,emb_177,emb_178,emb_179,emb_180,emb_181,emb_182,emb_183,emb_184,emb_185,emb_186,emb_187,emb_188,emb_189,emb_190,emb_191,emb_192,emb_193,emb_194,emb_195,emb_196,emb_197,emb_198,emb_199,emb_200,emb_201,emb_202,emb_203,emb_204,emb_205,emb_206,emb_207,emb_208,emb_209,emb_210,emb_211,emb_212,emb_213,emb_214,emb_215,emb_216,emb_217,emb_218,emb_219,emb_220,emb_221,emb_222,emb_223,emb_224,emb_225,emb_226,emb_227,emb_228,emb_229,emb_230,emb_231,emb_232,emb_233,emb_234,emb_235,emb_236,emb_237,emb_238,emb_239,emb_240,emb_241,emb_242,emb_243,emb_244,emb_245,emb_246,emb_247,emb_248,emb_249,emb_250,emb_251,emb_252,emb_253,emb_254,emb_255,emb_256,emb_257,emb_258,emb_259,emb_260,emb_261,emb_262,emb_263,emb_264,emb_265,emb_266,emb_267,emb_268,emb_269,emb_270,emb_271,emb_272,emb_273,emb_274,emb_275,emb_276,emb_277,emb_278,emb_279,emb_280,emb_281,emb_282,emb_283,emb_284,emb_285,emb_286,emb_287,emb_288,emb_289,emb_290,emb_291,emb_292,emb_293,emb_294,emb_295,emb_296,emb_297,emb_298,emb_299,emb_300,emb_301,emb_302,emb_303,emb_304,emb_305,emb_306,emb_307,emb_308,emb_309,emb_310,emb_311,emb_312,emb_313,emb_314,emb_315,emb_316,emb_317,emb_318,emb_319,emb_320,emb_321,emb_322,emb_323,emb_324,emb_325,emb_326,emb_327,emb_328,emb_329,emb_330,emb_331,emb_332,emb_333,emb_334,emb_335,emb_336,emb_337,emb_338,emb_339,emb_340,emb_341,emb_342,emb_343,emb_344,emb_345,emb_346,emb_347,emb_348,emb_349,emb_350,emb_351,emb_352,emb_353,emb_354,emb_355,emb_356,emb_357,emb_358,emb_359,emb_360,emb_361,emb_362,emb_363,emb_364,emb_365,emb_366,emb_367,emb_368,emb_369,emb_370,emb_371,emb_372,emb_373,emb_374,emb_375,emb_376,emb_377,emb_378,emb_379,emb_380,emb_381,emb_382,emb_383,emb_384,emb_385,emb_386,emb_387,emb_388,emb_389,emb_390,emb_391,emb_392,emb_393,emb_394,emb_395,emb_396,emb_397,emb_398,emb_399,emb_400,emb_401,emb_402,emb_403,emb_404,emb_405,emb_406,emb_407,emb_408,emb_409,emb_410,emb_411,emb_412,emb_413,emb_414,emb_415,emb_416,emb_417,emb_418,emb_419,emb_420,emb_421,emb_422,emb_423,emb_424,emb_425,emb_426,emb_427,emb_428,emb_429,emb_430,emb_431,emb_432,emb_433,emb_434,emb_435,emb_436,emb_437,emb_438,emb_439,emb_440,emb_441,emb_442,emb_443,emb_444,emb_445,emb_446,emb_447,emb_448,emb_449,emb_450,emb_451,emb_452,emb_453,emb_454,emb_455,emb_456,emb_457,emb_458,emb_459,emb_460,emb_461,emb_462,emb_463,emb_464,emb_465,emb_466,emb_467,emb_468,emb_469,emb_470,emb_471,emb_472,emb_473,emb_474,emb_475,emb_476,emb_477,emb_478,emb_479,emb_480,emb_481,emb_482,emb_483,emb_484,emb_485,emb_486,emb_487,emb_488,emb_489,emb_490,emb_491,emb_492,emb_493,emb_494,emb_495,emb_496,emb_497,emb_498,emb_499,emb_500,emb_501,emb_502,emb_503,emb_504,emb_505,emb_506,emb_507,emb_508,emb_509,emb_510,emb_511
couteney_cox,0.02026176,-0.043381285,-0.006954585,-0.028727759,0.0384555,0.005883155,0.0143474825,-0.04315435,0.05053606,0.013049416,-0.004183437,0.11011179,-0.004105719,-0.04135807,0.016714534,0.07414198,0.011448987,-0.05903707,-0.025853587,-0.013340373,-0.04831212,0.09484759,0.030702636,0.061062224,-0.013212169,0.044298913,-0.024121769,-0.015535772,-0.048982643,0.017450431,-0.040992867,0.0030525436,0.0657109,-0.022749417,-0.05252864,0.065023355,0.014924705,0.0427808,0.010614196,0.011987518,0.011432182,-0.041298516,-0.0198929,-0.043451406,0.0030734122,0.06164312,0.058139354,0.011095697,0.04234076,0.06933313,0.039336998,0.024674933,-0.0366879,-0.036375295,0.04673129,0.032889947,0.056005836,-0.035955656,-0.023304291,-0.0070962575,-0.030072436,-0.028611543,-0.00158887,-0.022597348,0.023678014,-0.031296834,-0.061195754,0.016301742,-0.00090215006,0.022012802,0.049930125,0.070951946,-0.0033615616,-0.0033501107,0.021647995,-0.01431002,-0.02759775,0.02499747,-0.03976315,0.0068996362,-0.043311544,-0.0546474,-0.016764363,-0.112069555,-0.016783305,-0.08300636,-0.055862978,-0.051695548,-0.02036542,-0.040189672,0.018941194,0.0026998462,0.022385305,0.009480089,-0.04678222,-0.045223758,0.027399922,0.045309175,0.0117805,-0.011708938,-0.059486166,0.021535337,-0.010184282,-0.011909074,0.057666723,-0.0499934,-0.01188569,0.022956472,0.060267843,0.045792345,-0.0025215847,-0.07962692,0.03597074,0.012486106,0.09486609,-0.015477328,0.049806114,-0.060501777,0.025438942,-0.07013826,0.009854584,0.012249942,0.0027622597,-0.07145928,0.024428302,0.011794688,-0.0070648356,-0.06743291,0.0124222925,-0.04639262,0.055570226,-0.027969893,-0.060423877,0.014065127,-0.16145107,-0.050025515,-0.070359334,0.07573291,0.06620533,-0.050112035,0.061820615,0.00066710525,0.0005309256,-0.023610104,0.04885991,-0.040552884,0.045438103,-0.07856459,-0.05202534,0.004619597,-0.049219113,-0.018732084,0.004634529,0.018555824,-0.030447181,-0.00027798486,-0.01926716,0.0066851475,0.019472076,0.020679586,-0.06309194,-0.01888626,-0.0194735,-0.05072838,-0.056150172,-0.06766979,0.08266124,0.012707727,0.0015664086,-0.055094976,-0.03697355,-0.0164338,0.0319599,0.046090942,0.1481764,0.05298352,-0.01578429,-0.0009641348,0.061319,0.03961669,-0.025072124,-0.042896952,-0.04101575,-0.004044766,0.031216932,-0.06827417,0.03849634,0.045502182,-0.0077883834,0.07385604,-0.019071635,-0.060241316,-0.011354632,0.04336028,-0.04241288,-0.009885206,0.06308623,0.024808263,-0.008941472,-0.045943405,0.0013414961,-0.012436825,0.009224212,-0.0008991578,0.015420405,-0.044287723,0.10205274,-0.052475408,-0.011023895,-0.019742113,-0.021981226,-0.0036627841,-0.00670798,-0.04569022,0.07877183,0.0113176545,-0.00024879148,-0.095731325,0.0048334887,-0.040344078,-0.102324,-0.04235429,-0.0031902667,-0.029580504,-0.0030623807,-0.07616299,-0.04583721,0.060850784,0.109500214,0.0431127,-0.023609564,-0.07214795,0.046873573,0.011607304,0.0073927045,-0.055155367,-0.05441679,0.05143899,0.0086825965,-0.0038223697,0.028305208,-0.027668307,0.08445635,-0.09382295,0.05316507,0.028171366,-0.005095954,-0.036757153,0.019173073,-0.018035877,0.05598853,0.036945935,-0.010634222,0.006353239,0.0019751599,-0.009463118,-0.030371375,-0.016536085,-0.027449394,0.033878148,-0.029674351,0.005300319,-0.07743913,-0.025433501,-0.008123126,-0.034374893,-0.023990525,0.042977102,-0.024651835,0.002258118,0.0067488886,0.066021115,-0.012170194,-0.021619331,-0.0083828345,-0.012912098,0.03817727,0.048929423,-0.016475545,0.00944658,0.042132728,0.0008662558,0.0039713886,-0.035511598,0.011213016,-0.019860951,-0.035937313,0.0043732277,-0.05226065,0.020150091,-0.08738206,-0.0012537155,0.0072922795,0.0071260897,0.011745485,-0.029872997,-0.035638396,-0.007330031,0.007573002,-0.044450797,0.017495748,-0.009159905,-0.035860118,0.045325007,-0.064387135,-0.028624196,-0.020429134,-0.007863261,0.023945786,0.046839997,0.088367715,-0.013297131,-0.012732228,0.05844466,-0.02443629,0.05273767,0.013397922,0.06614466,-0.03561969,-0.04184602,0.043118924,-0.030253593,-0.01975745,0.03200129,-0.0045562573,0.06713971,-0.081389874,-0.016135212,-0.0016099613,-0.016971713,0.039584797,-0.0068702023,0.124378495,-0.028852671,-0.049103178,0.026349405,-0.009865571,0.008822754,0.046898864,0.07093048,-0.018889574,-0.016137592,-0.065133415,0.038219485,0.10574075,-0.036341727,-0.004362872,0.0031729513,-0.00715545,-0.08655992,0.011492839,0.025933197,-0.0640932,-0.0352541,-0.008645252,0.045003742,-0.013919793,-0.06962307,0.023311956,0.008747986,-0.037779603,-0.072316326,0.07800524,-0.005477422,-0.03907258,0.01553265,-0.05116047,-0.019597728,0.060837056,0.009575605,-0.06584126,0.002416057,-0.088938475,-0.12255031,0.064848945,0.021041285,0.020991536,0.007289305,-0.003979961,0.007953651,-0.09873665,-0.0011820149,-0.012151002,0.008903355,0.0078039495,0.013891319,-0.020635018,0.012421016,-0.027491363,-0.038157433,0.01166828,-0.05010815,0.028269462,0.0029000184,-0.018073278,-0.038798235,0.10697053,-0.046505522,0.019713366,0.037701264,0.021109125,0.023735367,0.016154967,-0.0074597495,0.009403557,-0.0759067,-0.051666725,-0.04871359,-0.09766502,0.047483318,0.017503243,-0.041877285,0.0046689534,-0.016625384,0.056813736,0.010767983,0.062137604,0.008016615,0.036509536,-0.07587139,0.0049143997,0.012769125,0.027312048,-0.017721524,-0.030634152,-0.012698782,0.0011381992,0.053731583,-0.057879858,-0.007436528,0.0050496683,0.055278074,-0.114824675,-0.040166043,-0.018924635,0.003718048,0.02609549,0.03008856,-0.014112905,0.039284825,-0.014499565,0.014529537,7.0930575e-05,-0.07438504,-0.064235926,-0.11022346,-0.015788369,-0.042129774,-0.034745354,0.01822536,0.022734994,-0.019241197,-0.050256178,0.121017255,-0.002933627,-0.03623376,0.04771644,-0.061101735,-0.03668698,0.0029746366,-0.09140152,-0.11031366,-0.046828844,0.04386548,-0.005915236,-0.030075219,0.0044245194,-0.017666852,0.041101735,-0.04712587,0.0032059753,-0.014507237,0.023487922,0.014683851,-0.10201866,-0.02393272,0.018900154,-0.012368247,0.03979905,-0.013796206,0.0036596383,0.067576975,-0.010276403,-0.08006167,0.027267313,-0.037767623,0.061593335,0.005429003,-0.066266574,-0.015552965,0.037528273,0.034378916,0.024888456,-0.07864709,0.02205464,0.089452416,-0.08079633,0.06797421,0.0025217128,-0.015364597,0.05461598,0.042687047,0.01861985,-0.024428235,0.06685315,-0.024222659,-0.02660274,-0.023969896,0.049128406,0.008733268,-0.018567162,-0.053045113
couteney_cox,-0.000474678,-0.02152596,-0.03204567,-0.055140976,0.008543488,0.035603642,0.036246646,-0.04873955,0.020575333,0.03551212,-0.05652211,0.1048845,-0.01762265,-0.06745536,0.012652132,0.022424802,0.019011505,-0.063424826,-0.026589166,0.00033096847,-0.051363904,0.074678645,-0.04097468,0.042216316,-0.011122705,0.051715665,-0.012336606,-0.013920085,-0.08108611,-0.0020790678,0.003029545,0.018485544,0.04966925,-0.007296068,-0.06832032,0.006121614,-0.019761248,0.02027065,0.0056608296,-0.011599187,-0.023575136,-0.051145364,-0.027292632,-0.05547284,0.021117283,0.037867013,0.07964515,-0.012135689,0.078794785,0.033905208,0.076646544,0.08617696,-0.028697189,-0.059326146,0.042026155,0.050856903,-0.008585909,0.004850438,-0.03311533,0.014760378,-0.02240074,0.008906936,0.023285594,-0.029003559,-0.023147756,-0.014125037,-0.0845923,0.02979771,-0.014962784,0.038649574,-0.00026500976,0.06590801,-0.035830725,0.010915357,0.023125011,0.01598056,-0.0501036,-0.043304905,-0.005697958,-0.033179708,-0.07133616,-0.03872574,-0.00051150256,-0.13113756,-0.05734924,-0.11346094,-0.058216855,-0.07309491,0.018003322,0.0019578633,0.00036434713,0.0043174974,0.066069335,0.036101244,-0.031840418,-0.009353909,0.01296969,0.027991684,0.030164648,-0.0601124,0.020046584,-0.00305273,0.024755655,-0.07091504,0.06368546,-0.023015644,-0.050432783,0.00068659853,0.02280644,0.016011773,-0.0042789713,-0.056475833,-0.0037056212,0.042579036,0.11065532,0.021253202,0.0641222,-0.07063501,0.011851704,-0.050663445,-0.032463208,0.007656436,0.041167486,-0.042247053,0.034626555,0.015714772,0.006824041,-0.059683975,-0.004285229,-0.040597267,0.029720467,0.012746477,-0.0244186,-0.062555976,-0.14543231,-0.100398675,-0.056925774,0.06631652,0.053579025,-0.047042836,0.060264174,0.009993502,-0.00980879,-0.009921027,0.043115318,-0.070057064,0.06623573,-0.07670328,-0.04791166,0.0772197,-0.06911662,-0.023511196,0.03129112,0.026201518,-0.000525585,-0.0036708247,0.045472495,-0.01279006,0.07184733,0.011812993,0.007876192,-0.04680372,-0.03430215,-0.06250617,-0.021935826,-0.059304737,0.097936265,0.016167797,0.02931179,-0.028028658,0.00037732223,0.05957325,0.02987103,0.0205984,0.042490266,0.02625047,-0.04185305,0.008065303,0.05111271,0.036678057,-0.048696533,-0.050802156,-0.028631331,-0.0057535307,0.02593219,-0.027164552,0.03292862,0.054763604,-0.017595736,0.08151799,3.731814e-07,-0.062697135,-0.0019118506,0.027321711,-0.048724655,-0.048643988,0.14054917,-0.015748022,0.0030646475,-0.09929776,-0.0012778653,-0.0433546,-0.010371857,-0.0052358657,0.024661243,-0.08082363,0.07674161,-0.061211962,-0.046463434,-0.0033423528,-0.029945228,-0.00610825,0.016112097,-0.069848925,0.09171583,-0.020628652,-0.016035639,-0.039026555,0.018019214,-0.033520754,-0.091318175,-0.013470633,-0.004640925,-0.011946876,0.059760425,-0.09195476,-0.02484019,0.042172972,0.107904024,0.06263849,0.037991237,-0.07713889,0.020122305,0.0058337227,0.02998732,-0.011392281,-0.063916415,0.011469792,0.0008414295,-0.055795193,0.058778785,-0.030042607,0.054713514,-0.058148306,0.047101706,0.01819665,0.041250817,-0.047076594,0.011764341,-0.031777646,-0.0058878744,0.02749937,0.03759416,0.039978493,0.0080642775,-0.0407621,-0.015658863,-0.0018964969,-0.0007934791,0.034010045,0.012379369,0.025663598,-0.028842915,-0.011424303,0.030733574,-0.013208377,-0.027769689,0.04291929,-0.0062276763,0.019167468,0.014178889,0.05178984,-0.050598897,-0.02348616,0.01798818,-0.015948514,0.028947476,0.025781455,-0.03212487,-0.015905404,0.012119732,-0.036258314,0.013892263,-0.05701899,-0.037943397,-0.00012814993,-0.065457955,-0.012963961,-0.10164104,0.002541965,-0.07090701,0.06004919,-0.0022749999,-0.034641463,-0.015668536,-0.007849133,-0.0017888813,-0.048821934,0.04238428,-0.010346166,0.062347393,-0.00787176,0.00037620103,0.018694974,-0.0069272425,-0.032689564,-0.037452053,-0.0024516394,0.011064461,0.045833766,0.10303807,-0.035083063,-0.03213192,0.03519869,-0.002092818,-0.042479046,-0.047863767,0.03191659,-0.08405701,-0.0460899,0.06429731,-0.014252305,-0.07860113,0.042700514,-0.012943958,0.033049546,-0.018366477,-0.06591514,-0.03358313,0.030455211,-0.01378095,0.026851013,0.08857093,-0.010139487,-0.07922964,-0.004547377,0.008390121,-0.02825875,0.07986769,0.075603366,-0.0075002224,-0.03479889,-0.015946168,0.0051276674,0.064799,-0.019888211,0.051994566,-0.021945432,0.0117952265,-0.0582436,-0.022341926,0.04483716,-0.05739065,-0.06305435,-0.0040728785,0.08048294,0.06669026,-0.07516536,0.0013538671,-0.010367654,-0.042611293,-0.07289397,0.047063943,-0.016131764,-0.023452668,0.02670044,-0.017847601,-0.010835113,0.04094419,0.025496755,-0.06292908,0.03160661,-0.03678053,-0.06501469,0.055647284,-0.00029212527,-0.019723076,0.008282229,-0.025373342,0.01747753,-0.09833974,0.0077036438,-0.004394807,-0.021009952,0.019719655,0.026253633,0.024522472,-0.016949285,-0.057537243,0.0014684881,-0.035534468,-0.032995377,0.0068421066,0.01505117,-0.016541054,0.017904595,0.04570109,-0.034815405,0.006154414,0.058555566,0.017444707,-0.019558651,0.02582059,0.016324677,-0.08884528,-0.08224614,-0.0074970997,0.031275295,-0.09704873,0.0061282474,0.0038165671,-0.026673993,0.022028394,0.01647921,-0.023247795,0.033201195,0.017982546,0.03822176,0.026747148,-0.07095024,-0.021650778,0.028342765,0.015644662,0.01852775,0.035107665,-0.04685767,-0.017251322,0.08443161,-0.028463148,-0.022595258,-0.019949853,-0.02475115,-0.05409278,-0.067199096,-0.032729246,0.009168319,0.013097383,0.060563978,0.010011984,0.02010267,-0.026660617,0.0105060795,0.040468413,-0.08144886,-0.044416368,-0.078420036,0.028625593,-0.033297013,-0.02287665,-0.0044348566,0.013515988,0.01959494,0.010295262,0.04052612,-0.074292466,-0.072860695,0.03994879,-0.034950625,-0.031762343,0.0027365028,-0.11472507,-0.08105474,0.015832352,0.026145639,-0.0063666217,0.004754127,-0.019611884,0.036280535,0.0437175,-0.09438149,-0.027682822,-0.0020428319,0.011731723,0.06713962,-0.11475477,-0.021985065,-0.0012029968,-0.038489565,0.062708,-0.050138645,0.0037889478,0.038191855,0.023137033,-0.045761034,0.11900442,-0.022257853,-0.012683363,-0.05524287,-0.020209223,-0.009595764,-0.010336666,0.053346265,0.0367307,-0.017996019,0.028824188,0.072353095,-0.039533883,-0.006595593,0.011311474,0.028225234,0.047876686,0.029709961,-0.0033342345,-0.007681429,0.03931128,-0.004386828,-0.026669517,-0.023337478,0.07252514,0.009164752,-0.027945666,-0.027901448
david_schwimmer,0.051845953,-0.035129245,0.07220892,-0.05025232,0.020123249,0.064225465,-0.041015808,-0.041591138,-0.009533527,-0.049546134,-0.0017236578,-0.031411313,0.012723352,-0.006471136,0.022520987,0.055248547,-0.06006321,0.013848743,0.030123407,-0.023281356,-0.04366892,-0.041993998,0.0057275686,0.008491126,0.0114657665,0.047014676,-0.05980255,-0.009341969,-0.008632571,-0.03994422,0.009185364,0.023589937,0.01660684,0.029436994,0.044302385,-0.008459039,0.082221,0.053516187,-0.056237992,-0.007418135,0.031637423,-0.0337691,-0.031424277,0.0028154405,0.023591876,-0.077611886,0.021500908,0.020430574,-0.015201941,0.04140974,-0.0048657507,0.004039434,-0.053244274,-0.043557853,0.040864088,0.08794517,-0.014150038,-0.0150060775,0.0010623158,0.025265412,5.6767767e-05,-0.014765159,-0.026366506,0.03546906,-0.02458444,-0.050023083,-0.017707855,0.05213022,-0.04831585,-0.046815015,-0.018570542,0.053212658,-0.077466495,0.00021560105,0.024259081,-0.07274023,-0.008478962,0.038676888,0.04030352,-0.11270483,-0.0033477484,-0.008497274,-0.0288248,-0.027237594,-0.017015621,0.022699362,0.00453187,0.032684535,-0.0021905128,0.03013129,0.05784369,-0.058480337,0.021957427,-0.013100446,-0.0077686957,-0.019439496,0.05240228,0.0015984209,0.01842604,-0.027310856,0.023272367,0.0061868215,-0.009803388,0.032708827,0.00019575932,-0.060595576,-0.036691602,-0.015735887,-0.01356866,0.004593848,0.0023168826,0.047705073,0.020752488,0.050516434,0.02823779,0.06713778,0.07019826,-0.0040300167,0.027224138,0.024384178,0.02363097,0.024452528,0.01579706,-0.005744307,0.034520756,0.08580491,0.052552775,-0.034486208,0.012510528,-0.015186311,0.030300278,0.008196245,0.012993086,-0.008193259,0.0077428557,-0.06945428,-0.027437728,-0.014694797,0.023032166,-0.005887316,0.015906135,-0.050856806,-0.015672805,-0.039210025,-0.009064753,-0.059245292,0.028859073,0.035933148,0.020297943,-0.02953603,0.038937125,-0.003900406,0.034546304,-0.09053603,-0.017850058,0.019408409,-0.035998166,0.035804205,0.09311502,0.025046917,-0.12035126,-0.06105342,-0.020768642,-0.024721254,-0.061959878,-0.00016665923,0.009683226,-0.013734967,-0.0077373306,0.028133504,0.02278371,0.027356466,0.003647394,-0.009467659,0.097729735,0.013118549,-0.03912534,0.079109296,-0.03461122,0.037995126,0.015378176,0.058566254,-0.009877681,0.035279945,0.045681804,-0.027827613,0.0018563225,0.07522572,0.04938687,0.030024387,0.06651745,0.042662177,0.0132573955,-0.02802864,-0.05707716,0.028452113,-0.015708303,0.06647504,-0.04336056,-0.07529595,0.05566729,-0.058997627,0.06198417,-0.004486838,-0.015898222,-0.003986476,-0.032252897,0.096165255,0.02076234,-0.04523541,-0.07612765,-0.109432526,0.07377793,0.014575408,0.057351768,-0.034757726,0.01190341,-0.008973108,-0.007392487,0.0405301,-0.06218353,0.018976254,-0.06527829,-0.010056566,-0.05884552,0.04822957,0.013675661,0.007992592,-0.03964036,0.008322735,0.0009921541,0.02626842,-0.04918593,-0.019024225,0.065565325,0.012888818,0.019234197,0.0031629824,0.090037726,-0.018999575,-0.10899138,0.07112409,0.004712494,-0.0022401905,-0.040162887,-0.06448869,0.0957472,0.0008805627,-0.04839153,0.09143237,0.0069797924,-0.051225577,0.032266516,-0.008726471,-0.03747711,0.014097053,-0.05629961,0.0015180457,-0.039406575,0.052868288,-0.013027757,-0.011178107,0.028087217,0.054532014,-0.005587647,-0.07411968,0.016264914,0.012730211,0.03306239,-0.027503785,-0.009358258,0.09998631,0.022323292,-0.018434662,-0.053906508,-0.105507925,0.002884562,-0.046990316,0.037831254,-0.015315287,-0.12194345,-0.00076998834,0.015458641,0.006590634,0.06475848,-0.008631274,0.0044343076,-0.02805536,0.03745867,-0.06784447,-0.005641625,0.058369532,0.017596677,0.09182577,0.097747184,0.02047806,-0.0006645282,-0.006651236,0.061291974,-0.041600037,-0.0529501,-0.0018040311,0.025981894,0.080723874,0.039865904,0.047587078,-0.032866653,0.031203488,0.03964775,0.093926236,-0.017453121,0.063393444,0.011659961,0.048539113,0.050948292,0.005401391,-0.014349246,0.031338513,-0.05223703,-0.029168138,0.057660706,-0.019491756,-0.1008185,-0.0037234891,-0.044440128,0.038821366,-0.06282377,0.02031748,-0.038142208,-0.021911466,-0.073259726,-0.021329539,0.025332991,-0.05953199,-0.013125012,0.0278961,0.030764371,0.075659774,-0.07257745,0.05242949,-0.06538703,-0.012303732,0.0141002815,0.02790879,-0.019461041,0.025533607,0.05221746,0.025496488,0.027195424,-0.0050226054,-0.03880436,-0.008157064,0.009460379,0.04517548,-0.013824009,-0.04586177,0.094032966,-0.09739533,0.010589037,-0.051779028,-0.03486543,-0.0375385,0.041545875,-0.050047334,-0.090213574,-0.01576562,-0.053464737,-0.03061026,0.038132343,0.017337577,0.009336367,0.037496906,-0.11900362,-0.027163753,-0.008272512,-0.014137996,0.06036419,-0.04588773,0.06649974,0.03706494,-0.07592305,-0.026217395,0.037529208,0.05804094,0.09009707,-0.09131288,0.011642998,-0.0077323746,-0.017400252,-0.09365224,-0.036651205,0.06889818,0.11496021,0.030380467,-0.003046343,-0.036543656,0.051722724,0.088509254,-0.024948005,-0.0047587547,0.009766826,0.004033448,0.009306597,-0.0035441683,-0.0072308136,-0.06996442,-0.036825087,-0.025381677,0.020632619,0.046789534,0.03271206,0.03867306,-0.07603069,-0.04131558,0.067247875,-0.018842654,-0.0061059236,-0.01404801,0.029852277,-0.05529355,0.0007317202,-0.019201733,-0.025651116,0.038698416,-0.02983865,-0.009912361,0.06875421,-0.03118084,-0.104529776,-0.02390275,0.0279104,0.048108272,-0.049420547,-0.021977384,0.06553725,0.11680387,0.079919316,-0.006917735,-0.060438834,-0.018980995,0.028050452,0.01698524,0.03577346,-0.0857002,0.031561367,-0.07590669,0.057440877,0.005231961,0.037570972,0.035592664,-0.028010562,0.01153436,0.04001942,0.048154484,0.06771928,0.024260847,-0.014206647,-0.03794204,-0.044093806,-0.069865055,-0.007655258,0.038018096,-0.0010338485,0.038752068,0.0047627026,-0.076840095,0.03732435,-0.008638426,0.022918487,0.039738715,0.027042681,-0.05490571,-0.0834428,0.03524482,-0.02582112,-0.035044435,0.046465296,0.010675401,-0.028923655,0.0065613305,-0.0431117,0.006767718,0.028622327,0.037668474,0.00692444,0.025615461,0.057503078,-0.056908224,0.00912837,-0.024386106,-0.05343128,0.05777327,-0.0042630327,-0.03808618,0.04863106,0.017428188,-0.06396768,-0.010767123,-0.027926749,-0.003914841,0.0004757572,-0.03634477,-0.024734307,-0.10356562,0.010740248,-0.02664138,-0.07252079,-0.01673409,0.030229142,0.009548138,-0.011856955,-0.0049681794
david_schwimmer,0.067732096,-0.03824768,0.09839225,0.0010553001,0.044721153,0.056760784,-0.06512441,-0.021026134,0.024377078,-0.056521773,-0.015156105,-0.0155597525,0.016130859,0.014279226,0.022051224,0.04128127,-0.020660102,0.01847379,0.047343515,0.007001983,-0.004543469,-0.05100348,0.00219693,-0.0035231328,0.009151309,0.053765938,-0.03253049,0.016401201,-0.006545178,-0.015337281,-0.015944082,-0.022016663,-0.030031322,-0.0003142957,0.047537856,-0.045517683,0.034870166,0.025377816,-0.050206833,-0.009592486,0.025781976,-0.017676413,-0.041199706,-0.026948392,-0.0070645963,-0.042588297,0.042261273,-0.008902148,-0.013229019,0.025484564,0.0052746767,-0.028963841,-0.026175259,0.0019993114,0.03462031,0.031278268,0.008547452,-0.029297525,-0.00703075,0.012477086,-0.034580857,-0.051462017,-0.031237405,0.096742675,-0.050597057,-0.030793123,-0.0037764553,0.017262539,-0.009278123,-0.09401438,-0.036230914,0.03656453,-0.064076245,-0.0032631117,-0.017336428,-0.04581253,0.0016087912,-0.011030858,0.059028447,-0.084815174,0.035003725,-0.03759649,0.007424743,-0.032391936,-0.022241078,0.07477855,-0.01897396,-0.016144436,0.017928848,0.042834416,0.045149297,0.00036440272,0.023297677,-0.0032134894,0.0022969167,0.043574464,0.037414655,0.014372122,0.028135482,-0.05679238,-0.012176634,0.010369894,-0.0019470176,0.0635339,0.036397304,-0.06965439,-0.040553723,-0.026401417,-0.021274395,0.008049274,-0.0016444081,0.04557659,0.013045467,0.048271593,0.0024418866,0.037995305,0.0396916,0.013240113,0.0137738455,0.02446438,0.037019745,0.04137842,0.013983444,-0.072531275,0.085607186,0.060519673,0.06237537,-0.04883253,-0.027596848,-0.03243824,0.023929512,0.07050049,-0.00461969,0.0024943994,0.027190506,-0.026926378,-0.059243765,-0.02166926,0.035121694,0.018006504,0.005557311,-0.019302629,-0.021974875,-0.020566558,-0.008396577,-0.04438704,0.025613258,0.054389037,0.0030598987,-0.016434593,0.05509916,0.017592741,0.03730253,-0.042422228,-0.031645633,0.04204724,-0.021407066,0.02794493,0.0531885,0.036434148,-0.0903687,-0.050836593,-0.009859087,-0.013024733,-0.079823494,0.04196809,-0.002183297,-0.033279702,-0.012233413,0.03668297,0.016200447,0.024944695,0.038369216,-0.0028811735,0.100472674,0.013813208,-0.073926404,0.040373348,-0.012817364,0.034776058,0.0060038767,0.057842046,-0.04210492,0.020030955,-0.0041641914,-0.016968274,-0.0046209916,0.076676294,0.08075673,0.012660117,0.05879107,0.08129024,-0.0031440672,-0.041449226,-0.049055174,0.04176138,-0.023532445,0.035506137,-0.0412851,-0.10894182,0.06336154,-0.0532473,0.056249283,0.026046274,-0.011269762,0.04859025,-0.023811037,0.12394747,0.040088516,-0.060491476,-0.07038397,-0.069009915,0.08161751,0.0032058202,0.057822738,-0.081924446,-0.00618718,0.020368926,-0.03878242,0.04821679,-0.07202391,0.011963506,-0.044828143,-0.010767538,-0.03327463,0.092367664,0.0023337526,0.006061606,-0.018952815,-0.017613465,0.032581814,0.02628244,-0.04023463,-0.006709862,0.047570325,-0.008750448,0.012763073,-0.0008316602,0.06750903,0.026815195,-0.10520948,0.086717464,-0.008628395,0.034411356,-0.07430404,-0.044332378,0.07656129,-0.018326465,-0.05772243,0.083679564,-0.0049924804,-0.060127176,0.071381144,-0.006041711,-0.013448361,0.033973128,-0.0722934,-0.0015984736,-0.0704924,0.010658229,-0.012693655,0.009510824,0.071117364,0.03860951,-0.005592957,-0.028687166,0.020042056,0.009165643,0.015294782,-0.022926489,-0.029725282,0.092365496,0.08446879,-0.03067253,-0.053641286,-0.06157907,0.008023111,-0.049372535,0.056300197,-0.024544114,-0.1499316,0.03140131,0.011724903,0.04864727,0.00917212,0.016357055,0.007633497,-0.008347477,0.048913978,-0.019846963,0.002235908,0.025431413,0.03288506,0.093859196,0.0907185,0.0005578721,-0.011096896,-0.037218913,0.028512463,-0.07610549,-0.06284394,-0.013746447,0.022430317,0.0851344,0.02322296,0.054717373,-0.053928565,0.038040716,0.030238671,0.060916178,-0.02867892,0.06371649,0.009172445,0.054004524,0.04282269,0.0046296194,-0.023483159,0.05970886,-0.019806216,0.018255223,0.050751057,0.03451715,-0.05489971,-0.011575207,-0.03244485,0.025262114,-0.03226733,0.017403327,-0.05663164,-0.018262861,-0.057679452,-0.020334098,0.025113445,-0.08707067,-0.012044047,0.009105964,0.06012018,0.07409502,-0.057956483,0.0329411,-0.03757064,-0.027994193,0.010135049,0.016574359,-0.036556315,0.016460571,0.060466293,0.032211617,-0.018758498,-0.042801127,-0.03994514,0.005275765,0.014306748,-0.017560286,-0.021404946,-0.043693982,0.1001526,-0.07144226,-0.018993309,-0.04890807,0.015401947,-0.003768648,0.073607706,-0.0017014841,-0.017745296,-0.051688794,-0.078378566,-0.052314263,0.049621705,0.052861743,-0.008021822,0.03039431,-0.06842932,-0.02577063,-0.016920518,0.018109493,0.0549414,-0.034413196,0.05263254,0.069344394,-0.079781264,-0.03706204,0.06046666,0.048673365,0.091299295,-0.078548454,0.009578141,0.020654878,-0.015311661,-0.083156355,-0.03656302,0.074794196,0.0958906,0.07042058,0.007596437,-0.0025371886,0.027216747,0.0891211,-0.02791356,-0.02856166,-0.02643412,-0.02678835,-0.0064148577,0.008470777,0.016520465,-0.050075557,-0.042734176,0.018201318,0.01664902,0.031050215,0.01784539,0.019765249,-0.058208153,-0.051938824,0.05127019,-0.0008552066,-0.0052317916,-0.035269536,0.052737262,-0.05331814,-0.003091649,-0.03166915,0.005327229,0.027325677,-0.05078032,-0.0033152883,0.007534934,-0.049169514,-0.06252125,-0.059323944,0.042423528,0.04644293,0.029635185,0.053613767,0.100307874,0.08958352,0.06304397,-0.028331596,-0.03811601,-0.019501248,0.021303952,0.00865709,0.043132607,-0.042562183,0.023063926,0.0061785956,0.064470574,-0.0248921,0.052316003,0.02589338,-0.101719454,-0.007281324,0.05575994,0.02343787,0.07528903,0.0498529,0.011365706,-0.06775064,-0.06698747,-0.087146096,0.019416453,0.024918627,-0.0226225,0.023316666,-0.022601042,-0.09616782,0.011325749,-0.017235888,0.027141934,0.049854062,0.011294513,-0.070614755,-0.07821204,0.07250224,0.019042375,0.005679502,0.047988985,0.0050345263,-0.070984416,0.025989553,-0.037460715,0.017276024,0.03807615,0.0099447835,-0.010365686,0.039333154,0.046035796,-0.03438289,0.008613262,0.00806333,-0.071969785,0.028593188,-0.0036229237,-0.00017253212,0.043922618,0.029973133,-0.03168048,-0.029174883,-0.02605805,0.031585395,0.056565594,-0.06458082,-0.02739192,-0.12111317,0.031685077,0.0039800727,-0.05483232,-0.016280653,0.040798854,0.013359193,-0.022232475,0.0026067435
jennifer_aniston,0.017877765,0.051920325,0.07441349,0.051627252,-0.015929112,-0.04024415,0.002871612,-0.118930615,0.054474708,0.012272593,-0.036204908,0.0047660735,-0.050273657,0.012234976,0.0578606,-0.004356135,0.053803593,0.031555038,0.052954935,0.08660552,0.06751327,-0.06237459,0.02831169,0.07438642,-0.0027408875,0.017136551,0.06780548,0.05535574,-0.02655921,-0.016249001,0.010331359,-0.0008752762,-0.082366735,-0.019270157,-0.06064835,-0.09551927,-0.015785558,0.041620806,0.017546851,-0.024814276,-0.028556317,-0.01786439,-0.052922677,0.00054905354,-0.025397236,0.004557882,0.05178403,-0.007666766,0.019233659,0.06640423,0.045902204,0.041157607,-0.049793433,-0.029321222,0.054808874,-0.060463194,0.038757503,-0.044371057,0.035657477,0.08593647,-0.106084995,-0.05483159,0.042224012,0.05649079,0.03165162,-0.0155064985,-0.085143514,-0.030497337,-0.06201589,-0.06489505,-0.029593963,0.039380208,0.014889864,0.03172883,-0.011604248,0.0081311725,0.0039120805,-0.060173854,0.029325373,-0.0053221784,0.003224055,-0.09424442,-0.00119919,-0.04288818,-0.030753942,0.0060990374,-0.07424985,-0.036014635,-0.02445767,0.024327107,-0.05204847,0.059330642,-0.003520881,0.061377827,-0.05642243,-0.018538143,-0.041057818,0.022183375,0.10705901,-0.036898166,-0.025360618,0.016275104,-0.09448884,-0.02115279,0.08524434,-0.002125385,-0.10621855,0.0037828023,0.0045773447,0.025246754,0.017750412,-0.05630873,-0.002995741,0.09665896,0.037188243,0.06555608,-0.012440231,-0.06325216,-0.07291084,-0.02448352,0.07544541,0.08973121,0.06825263,-0.044414133,0.091366336,-0.06478376,0.03348391,-0.039973933,-0.022660172,0.027129168,-0.014452907,0.059186704,0.026214862,0.006618184,-0.027699076,0.018942332,-0.08981285,-0.045393866,-0.02002387,-0.05457242,0.06001585,0.020498574,0.03720037,0.0034161124,-0.0018596781,0.012030345,0.05151523,0.024094509,-0.02331016,0.0021251948,-0.08359484,0.1048473,0.080683075,0.0045623467,-0.03393084,-0.0028841866,-0.02240036,0.0025346968,-0.040929288,-0.018505067,0.051195152,0.04744485,0.053411048,0.024223836,-0.04422621,0.016954921,-0.015825478,-0.006245696,-0.04688912,-0.058484223,-0.008763579,-0.009405272,0.09705589,-0.0040287133,-0.021712076,-0.047630932,-0.060849786,-0.012660595,0.042144943,0.04385238,0.027677799,-0.0047260975,0.030120408,-0.06412258,-0.064338416,-0.06847637,-0.022264991,0.023157256,-3.950418e-05,0.032144424,-0.06702999,0.08291623,0.033475608,0.010321802,-0.039390005,0.03348904,-0.004982832,-0.060399044,0.05451217,-0.105727315,0.03523738,-0.05109184,0.015520627,0.044643827,0.045980092,-0.033173047,0.039615966,0.03264732,-0.0071941908,-0.02496655,0.0051058657,0.08388835,-0.0052004666,-0.023389153,0.045115262,-0.062805034,0.077337325,-0.025756842,-0.043904345,0.029900962,-0.0011594956,0.025169203,0.06812772,-0.037243318,0.021164278,0.02525131,0.017206175,0.094130054,0.015946174,0.0036765793,-0.0024346507,-0.050753262,-0.0020918495,0.038201172,-0.030393647,0.011230862,-0.05496703,0.07076627,0.003392596,-0.014477352,-0.012605274,-0.017615922,-0.021455009,0.055681266,-0.035249885,0.08123086,-0.035407506,0.008365806,0.000653715,-0.004683507,-0.03804827,-0.0088860225,0.11731523,0.023637624,-0.044170626,0.0123533495,-0.115346685,0.016799102,-0.046973456,-0.02774594,-0.019445032,-0.0013499808,-0.01665615,0.06399869,0.018865213,0.00075201737,-0.041257653,-0.04775105,0.026716297,0.051704314,0.037663657,0.004084464,0.043097552,0.003069086,-0.027040165,0.070486635,-0.048271492,0.049785122,0.046743818,0.06311543,-0.09576721,-0.043713067,-0.045026682,0.035282057,0.0064261868,0.05060353,0.0038302096,-0.03615086,-0.010425475,0.034822762,0.007771574,0.019558862,0.025344824,0.009512142,0.0056970036,-0.004615691,-0.0497538,-0.055583484,0.03773706,-0.07444377,-0.02488322,0.00011621297,-0.04666047,-0.00818268,0.02281322,0.010996443,0.00036496698,0.071423136,0.02335195,-0.07007598,0.020912435,-0.0058754687,-0.037621282,0.014878349,-0.007887693,-0.0018610145,0.008038444,-0.038496584,-0.0051860465,0.030116512,-0.02025507,0.013262936,0.008398319,0.077593096,0.02703101,-0.003094111,-0.0064974176,-0.002700072,-0.06117568,0.008319762,-0.074100494,-0.018070208,-0.00092236185,-0.05772266,-0.054270487,-0.017641243,0.048126683,-0.0021616374,0.000120503195,0.045621395,-0.07929216,-0.071981505,-0.056846052,0.04582814,0.06426501,-0.0026800253,0.031828314,0.07561516,-0.0034546554,0.04405165,0.02883967,0.022016706,-0.023485353,-0.048192203,-0.03401188,0.08749139,-0.048054926,0.010966046,-0.035577536,0.039942365,0.09121346,-0.010827681,0.027375791,-0.031213729,0.024811655,-0.009380371,-0.09082972,-0.054564428,0.03354786,0.003471243,-0.04229776,0.035576034,0.042590696,0.047713537,0.087800495,0.02077128,-0.01279486,-0.021853875,-0.030180115,0.053174544,-0.05491222,0.050586607,0.019878112,0.027357105,-0.01729488,-0.026889136,0.008928666,0.076960295,-0.026929792,-0.023541631,-0.032017563,-0.035969373,0.025485251,0.07707213,0.014481711,-0.04909908,-0.06882251,0.009560931,-0.05302258,-0.09342262,0.009825537,-0.058879424,0.022653343,-0.008856072,-0.021790847,-0.0856475,0.009194558,0.08027534,-0.02764205,0.08165,-0.044353485,0.01959182,-0.032762602,0.0657569,-0.006410102,0.03718131,-0.059533436,-0.0077713616,-0.00976172,-0.03187665,-0.015040744,-0.021243736,-0.021331029,-0.0027528072,-0.014658555,-0.0072927647,-0.052946664,-0.029027784,0.06328304,0.025144996,-0.074276775,-0.04118756,0.11423856,-0.013975031,-0.018562902,0.037912894,-0.08238368,-0.05010713,0.016964454,-0.0012310453,0.009973233,0.08042276,0.031976636,-0.06092299,-0.011610989,0.005454699,0.068162516,-0.037899148,-0.0004247838,0.048972566,-0.069007315,-0.011418774,-0.0012601982,0.033761494,-0.035768975,0.039798643,0.036555506,-0.015428128,0.053872067,0.0010361078,0.018817203,-0.016209919,-0.02291825,0.012364202,-0.049227275,-0.010093405,-0.047055915,0.0032451232,0.07074403,0.058691766,0.013734955,-0.03300555,-0.0075613772,0.019104728,0.0063454546,0.015147613,0.055412386,0.04307676,-0.034069642,0.01882662,0.012260074,-0.017735578,-0.0029696492,0.041452944,0.03980604,0.033566643,0.027006412,0.04522096,0.05193655,0.017482357,-0.033940587,-0.04613935,-0.027410455,0.03988227,0.0054123527,0.054312754,-0.02823793,0.0028503826,-0.019788317,0.0017060743,0.06521463,-0.04886981,-0.0058296137,0.029643597,-0.00036793167,-0.008089416,-0.012540519,0.04418214,0.039135333,0.01660601,0.023119243,-0.04254053
jennifer_aniston,-0.02308402,0.010558738,0.019633794,0.058989257,0.032282095,-0.045446005,0.01927083,-0.14154592,0.042983085,0.007162208,-0.03664239,0.010542039,-0.06555691,-0.012060911,-0.009125514,-0.015981933,0.04361152,0.045714486,0.07383217,0.07858903,0.06607972,-0.032167416,0.007930444,0.07115651,-0.0080419965,-0.009628638,0.10220528,0.03829497,-0.025990821,-0.028545221,0.004107031,-0.0021578718,-0.061552364,-0.0043628556,-0.06776841,-0.09716216,-0.025236001,0.034450747,-0.008467429,-0.003534444,-0.048182096,-0.030818772,-0.056278322,-0.007650716,-0.056667473,-0.0020060632,0.032576755,0.015751068,0.0172928,0.0803582,0.031861898,0.04283265,-0.009401182,0.0039450023,0.09545157,-0.04675794,0.037174396,-0.00046834824,0.07615982,0.03382861,-0.053630944,-0.050588444,0.07822991,0.029991305,0.06581742,0.0066345227,-0.06511893,-0.040243085,-0.07959989,-0.047838215,-0.071784884,-0.013231996,0.050436787,0.067465864,-0.00067467935,0.031673554,0.022968555,-0.06859776,0.035534736,0.010824037,-0.019237397,-0.043675937,0.024583384,-0.005682798,-0.013187989,0.0038638094,-0.030441137,-0.056370143,-0.036156982,-0.021253303,-0.051619142,0.0641504,0.021298274,0.09580634,-0.08839141,-0.010145533,-0.028218955,0.030224578,0.11091979,0.010378362,-0.028045444,-0.014059837,-0.081397146,-0.072574854,0.039407387,-0.015047525,-0.10569033,0.0049950616,0.010180101,-0.0017778724,0.039339386,-0.04475585,-0.04933772,0.08378898,0.03242708,0.08248171,0.012131759,-0.033247627,-0.06458061,-0.006584622,0.043641876,0.054928277,0.05540101,0.028927542,0.06740713,-0.05089121,0.05644888,-0.05245095,-0.022791056,0.05505937,-0.037626404,0.023555191,0.032076243,0.001258599,-0.07110761,0.0040120543,-0.07867825,-0.021181166,-0.016883167,-0.06722825,0.04403718,0.0336848,0.035979573,0.024706872,0.01836434,0.023269327,0.015962202,0.014246312,-0.0072104046,0.0023674387,-0.08216895,0.121034145,0.050091192,0.009402007,-0.028644307,-0.04438047,0.004679947,0.011084979,-0.0570453,0.005892857,0.047365464,0.0448943,0.080693804,0.019119816,-0.05875658,0.0342379,-0.022972327,0.011721558,-0.05103709,-0.04457734,0.016156975,-0.024842942,0.111096986,-0.020178424,-0.05853885,-0.024730675,-0.055330507,0.020068297,0.009413739,0.058419928,0.07635334,-0.01526953,0.025172908,-0.040153835,-0.047593012,-0.025694516,-0.049149875,0.012171062,-0.022331227,0.03844266,-0.09690357,0.06943282,0.0042239446,-0.0016377611,-0.044739384,0.04353753,0.0065245978,-0.008372082,0.04414538,-0.07033411,0.01031957,-0.046341,-0.019033743,0.018541722,0.044886347,-0.068518184,0.030601498,0.026424585,0.012111242,-0.00020638504,0.051579066,0.06801326,-0.022142846,0.021155545,-0.024446424,0.0050113685,0.041940164,-0.006484085,-0.076298036,0.0017732764,-0.0011087043,0.02877164,0.10755717,-0.02084422,0.02979,0.028052306,-0.019345686,0.06893313,0.058442082,-0.008594356,-0.009499653,-0.048524167,0.0007588557,0.01823066,-0.04031985,0.0110117495,-0.07002412,0.056985807,0.0012505814,-0.023913916,0.021345818,-0.047344275,-0.074914075,0.04153941,-0.03341066,0.075606905,-0.058013484,-0.013717938,0.01896471,-0.040551174,-0.035723478,0.0051901625,0.087521814,0.022536611,0.01823234,-0.003110308,-0.12340915,0.015726931,-0.027931347,-0.03682478,-0.02920426,0.038786322,-0.036695525,0.07509111,-0.01755237,-0.010456041,-0.0006722028,-0.06459086,0.032750424,0.03953782,0.032514833,0.011904691,-0.025874985,-0.031362157,-0.0061415294,0.113165654,-0.01842445,0.042472813,0.06127742,0.08338491,-0.013725876,-0.046465106,-0.09412495,0.035702646,0.033605583,0.060617972,-0.03748515,-0.040235743,0.010111496,0.051393043,-0.011477692,0.01311597,0.05708281,-0.023997778,0.01210231,0.022061707,-0.049527746,-0.02839076,0.07391799,-0.043554567,0.015087893,0.057659898,-0.0036876146,0.035912286,-0.0022852903,-0.006032166,0.032127555,0.043638285,-0.03904609,-0.11543013,0.012955983,0.006382098,0.012294553,-0.019736134,-0.021709135,0.034478694,0.015512362,-0.03836448,0.033182606,0.06677938,0.01900385,0.035050675,0.048493575,0.06553473,0.052158836,-0.042040642,0.01782162,-0.054413147,-0.061341103,0.0033781163,-0.07595086,-0.012867858,0.034179695,-0.018790396,-0.062270597,-0.021810502,0.033057697,-0.049433973,-0.012027248,0.03485895,-0.031200131,-0.028163081,-0.05401666,-0.0048967274,0.054917514,-0.0058173486,-0.041255333,0.08529597,0.023449829,0.04506294,0.010576515,-0.011047145,-0.04261051,-0.04897959,-0.05922577,0.08193735,-0.034935553,-0.0018321407,-0.041907508,0.087739356,0.0771624,-0.001617514,0.032759357,-0.002091334,0.044700056,-0.018360257,-0.07505867,-0.04791364,0.00087418145,-0.044813786,-0.017340785,0.051552024,0.0069326814,0.05101584,0.05392419,-0.0060390867,-0.10053272,-0.02277081,-0.06446793,0.020340106,-0.043695077,0.08571671,0.013619024,0.02451995,-0.044519022,-0.030143099,0.0059847967,0.052079596,0.014139711,0.026476122,-0.043156087,-0.045526337,0.03953945,0.030341536,-0.0012621974,-0.0144364545,-0.038742043,-0.0044676843,-0.0046895472,-0.12030869,0.00832148,-0.030691734,-0.02313173,-0.04812308,0.012875522,-0.048715834,-0.02571186,0.067774825,-0.019081967,0.08063971,-0.058972985,0.02603353,-0.010226234,0.047698062,-0.015283319,0.032510266,-0.032193176,0.030817335,-0.07051065,0.019627979,-0.034907855,-0.037912346,-0.014388401,0.031198692,-0.0053142817,-0.026236389,-0.03825116,-0.006684286,0.075706236,0.020384448,-0.08733257,-0.050165374,0.09616695,-0.018060131,-0.060054976,-0.028943414,-0.07167758,-0.06713549,0.03572046,0.0049363426,0.0259889,0.059837483,-0.01773514,-0.030405344,-0.021860238,0.0315814,0.042817216,-0.006524785,-0.03441345,0.017979654,-0.003774168,0.022882855,-0.017155135,0.014107407,-0.053131606,0.0040944736,0.009864656,-0.04984176,0.08674877,0.04106845,0.03150648,0.01795786,-0.029544408,0.023924425,-0.029411823,0.0018019506,-0.034655493,-0.005934402,0.06239263,0.022414152,-0.01570077,-0.008186767,-0.019586239,0.023691608,-0.013879957,0.008918372,0.055450097,0.0312725,-0.027268643,-0.009567311,0.003961961,-0.025886597,-0.009742721,0.024739945,0.06382887,-0.004125385,0.02450212,0.04138866,0.014525227,0.010089598,0.0066099674,-0.03851436,0.0038129545,0.076973245,0.004696571,0.046024505,-0.0057549365,0.019489577,-0.0326761,0.0033626512,0.043498702,0.0076239165,-0.0136648,0.04854094,0.02179733,-0.012158889,0.018397497,0.017343681,0.008885912,0.017726697,0.0479603,-0.031073727
matthew_perry,0.019694427,0.007721956,-0.041139256,-0.03762164,0.04373096,-0.052822527,0.018132173,0.0802973,-0.0039382875,0.017160213,-0.040225703,-0.036931776,0.0073997066,-0.031432014,0.035561364,-0.013751405,-0.06650911,-0.049815323,-0.01710804,0.021985477,-0.015476303,0.049863454,-0.07034258,0.0489432,0.024183467,6.394755e-05,0.041731257,-0.02914795,0.0011075083,-0.022696916,0.0076644667,-0.049503926,0.006023279,0.037293945,0.040868912,0.0203386,0.042754732,0.07513131,0.032137915,-0.095346466,-0.030434135,0.06604131,0.12250622,-0.044258185,-0.066445805,0.021683047,-0.011484384,-0.05918597,-0.04351934,-0.0028906811,0.08310748,0.06023891,-0.014976927,-0.00962009,-0.03353291,0.021531718,-0.026776249,-0.035393644,-0.04451242,0.019658457,-0.036364403,0.01961261,-0.01650821,-0.017589353,-0.052666172,-0.06350553,-0.017743213,0.040551167,0.1397825,0.033781342,-0.03984686,-0.07981444,-0.008396726,-0.046412263,0.006521956,0.020005118,-0.023234133,-0.0459676,-0.014269579,0.0047963997,0.049150147,0.054684654,0.041561298,-0.009741023,-0.039572194,0.061158244,-0.032391947,-0.054994218,0.019708758,0.058949817,-0.06320652,0.061849967,0.02943836,0.030654965,-0.04706495,-0.01866234,-0.035273127,-0.05804011,0.0031319018,-0.15373246,-0.05051467,0.06786574,0.040790554,0.010943921,0.015453817,-0.03243346,-0.045190584,-0.06483572,0.04846867,-0.020943189,-0.07188864,0.04213412,-0.007914641,-0.003609299,0.06317148,0.0347485,0.04791294,0.007164766,-0.02729024,-0.042106688,-0.04408844,0.0039786766,0.051259797,-0.063519485,0.015837425,0.045650296,-0.037421264,-0.032713905,-0.013520407,0.06515424,0.011539932,0.15239461,0.007887396,-0.053655792,0.042836316,-0.0649945,-0.018831318,-0.029101456,-0.021715725,-0.0008147498,-0.018590314,-0.009397166,0.035936795,0.017821059,-0.035137635,-0.03696814,0.012559154,0.004332572,0.022468321,0.0034302992,0.010051169,-0.11696752,0.05688159,0.05559996,-0.078612566,0.0115896985,0.015128089,0.03532101,0.020397201,-0.057322916,0.06477744,-0.009106784,-0.033898327,-0.1121191,0.07567294,0.0019321232,-0.091623686,-0.03054194,0.044346374,0.027714182,0.037744164,0.012210088,-0.06673318,0.04552445,0.017499356,-0.03471343,0.050844774,-0.017970074,0.00444172,-0.017557438,-0.04281072,0.021606402,0.01526689,-0.08652045,-0.010296576,0.030248402,0.046811443,0.0007247403,0.013673592,0.029452804,0.043483447,0.03431189,-0.022408344,-0.017105388,0.037658453,-0.013248471,0.06777858,0.034783185,0.017996216,0.033457384,-0.026743582,-0.002198935,0.049909562,-0.025033444,0.007622491,0.119369425,0.024393525,0.042144444,-0.021067316,0.029832352,-0.012589353,0.009616064,-0.018261664,-0.03989269,0.021950157,-0.054343805,-0.027240118,0.014587487,-0.026800165,-0.016429447,-0.05420555,-0.04350655,-0.009541484,0.04158368,0.026580378,-0.049722906,0.005942641,0.016862819,0.04787265,-0.033817295,0.048324086,-0.030055616,0.014720357,0.016971655,0.03742656,-0.05918173,-0.030716589,-0.041892383,-0.023694525,-0.013025613,0.067089416,-0.03891074,-0.019930674,0.024277542,-0.060860723,0.075288095,0.0044807284,0.076779395,-0.09561307,0.048401184,-0.016409904,0.003358576,0.03596876,0.023041835,-0.01452842,-0.0693194,-0.010542657,-5.4840042e-05,0.023107253,-0.10645657,0.026253467,-0.085249014,0.015140902,-0.041358784,0.023557017,0.0359853,-0.010238037,0.07262229,0.025492078,0.06999359,-0.0044870097,-0.032652374,0.0053891935,0.0041358606,0.021819616,0.024493955,-0.0063189636,0.039636467,-0.040099416,0.025717104,-0.12990865,-0.027722744,0.04822447,-0.06352044,-0.07129932,-0.033398714,0.023190182,0.001068446,0.017181458,-0.0008322069,0.00747731,-0.0043321196,-0.08660649,0.022619247,0.005546615,0.0011602109,0.013171449,-0.024581747,-0.02517923,0.004678512,0.007108309,0.012998844,0.010740869,-0.037415784,0.051809367,-0.056153417,-0.03679714,-0.00013820747,0.032213945,-0.029554004,0.06234287,0.038539458,-0.053582113,0.02802684,0.06265267,-0.062140856,0.0013086275,0.043552354,0.010080403,-0.007427175,-0.022141336,-0.022864047,0.059267007,0.036667798,-0.08045641,0.08979066,-0.010321377,-0.030589582,0.00086145167,-0.053093117,-0.011491593,-0.082312025,-0.0143127,-0.002507932,-0.013516209,-0.04225578,0.032267936,-0.028769234,0.030307142,0.0525544,0.054754406,0.0064909374,-0.07465134,-0.055787798,0.014105836,-0.08904419,0.00039323937,0.034208443,0.025863416,0.008574203,0.0023575171,0.052566264,0.029159876,-0.026435388,0.007082305,-0.007946137,-0.059626047,-0.028750181,-0.085651584,-0.021428268,0.06799146,-0.022655087,0.008661794,-0.008705259,0.010099828,-0.0016201013,0.03527864,0.0049212696,0.076913916,0.00047594745,-0.042468198,-0.013241813,0.022605523,-0.036179796,-0.025494771,0.012078682,-0.010932729,-0.07750892,0.048016533,0.082891025,0.041844722,0.0114353,0.028149076,-0.0024008267,0.020832017,0.017226024,0.048103336,0.040240083,0.04233967,-0.062620826,-0.05472277,0.022414945,-0.03366996,0.016242426,0.023037864,0.03426724,0.022661358,0.07335543,0.013626702,-0.003619548,-0.014683513,-0.064789794,0.06290451,-0.022109011,-0.03228554,0.0021140042,0.02203393,0.062050767,-0.002895651,-0.030473555,0.02597864,0.021580074,0.029699411,0.026764719,-0.11002528,-0.004169882,-0.055767138,-0.051501952,-0.009917575,0.011960603,-0.02306565,0.021035759,-0.06273603,-0.008794119,-0.007214123,0.008987135,-0.07819612,0.032328866,0.031704694,0.023828855,0.03274644,-0.056897495,-0.015934292,0.06041021,0.007530338,0.016661575,0.016312294,0.013054913,-0.019423138,0.00044533442,-0.07293325,-0.04800527,0.043895844,-0.062145766,0.04552292,0.059040576,-0.01803927,0.03521142,0.07680606,-0.013663469,-0.047132734,0.036649387,0.063332096,-0.081301354,-0.059776414,0.010469088,0.009120348,0.011910961,-0.046656653,-0.0034509904,0.03847887,-0.02676233,0.06816247,-0.0071906475,-0.048581753,-0.053086374,-0.0073774513,-0.0327795,-0.11034077,-0.0013116343,-0.021934785,0.037057824,-0.08538642,-0.00084915484,-0.04897537,0.051694192,0.031896558,0.0103922,-0.05650921,-0.06899443,-0.0030183457,-0.039834075,0.001266628,-0.063092425,0.03643557,0.019400747,-0.06791227,-0.0015650037,-0.051965557,0.045338567,-0.0069940537,-0.108964756,0.09148192,0.09126172,0.04849069,0.0026317355,0.03305872,-0.03895911,-0.028868878,-0.0018476896,0.053427577,-0.06412057,-0.03346455,0.012956974,0.033479933,-0.02415006,0.010521079,0.034801126,0.104088664,0.054422047,0.04657188,-0.045149375
matthew_perry,0.041991588,0.026406344,-0.043980632,-0.07016725,0.0067704306,-0.04057321,-0.028044727,0.09660774,0.007185354,0.022593716,0.050556447,-0.044721887,0.013931429,-0.058265004,0.03313168,-0.0065718046,-0.051827762,-0.032917123,-0.07451659,0.013655832,-0.012808297,0.039225694,-0.062213123,-0.0041818907,-0.04375916,-0.0032272157,0.039254576,-0.03778305,-0.034168545,-0.039616715,-0.01606035,-0.008781503,0.01447211,0.10171097,0.0016855806,0.054928523,0.031835854,0.06367083,0.030795626,-0.06796504,-0.03307919,-0.0051933946,0.08385139,-0.016535845,-0.037107974,0.057083655,-0.011921745,-0.04516159,-0.007299703,-0.0030951567,0.06711764,0.056201965,-0.016623732,0.015721634,0.01999734,0.05364357,-0.007551692,-0.07595892,-0.022991465,0.009637515,-0.039515812,0.015405268,-0.040856477,-0.010012857,0.003879864,-0.09083429,-0.04634536,0.03773012,0.12493678,0.032347254,-0.04133572,-0.07683602,-0.035674818,-0.08299421,0.0693413,-0.0009200017,-0.08194519,-0.05384757,-0.06432468,-0.042873003,-0.00908109,0.057031073,0.06231078,-0.06302404,-0.07582215,0.03454978,-0.0137276,-0.07231188,0.06126645,0.045080487,-0.10688641,0.058058526,-0.021981452,0.019589245,-0.09754534,0.016328705,-0.037596438,-0.032738827,-0.019237349,-0.13964999,-0.043692037,0.057516802,0.031730615,-0.005349369,-0.032698315,-0.034204528,-0.018637756,-0.098970085,-0.025683941,-0.013945466,-0.100771315,0.01941362,-0.0117589105,0.025829682,0.0681132,0.07859397,0.050395783,0.019543413,-0.024713743,-0.049723662,-0.054861285,-0.014361084,0.01994529,-0.039561354,0.011589201,0.01998772,-0.053387016,-0.035433527,-0.010220131,0.00239543,-0.024805445,0.08787052,-0.040637385,-0.044165924,0.060204197,-0.046547584,-0.03926309,-0.03314772,-0.059393466,-0.017307896,0.03255008,0.012159678,-0.009113057,-0.01437344,-0.0011217437,0.007981967,0.049194396,0.02449676,-0.007838678,0.076324,0.007451223,-0.09912059,0.007950601,0.042024747,-0.04489689,0.025870707,-0.026179774,0.013490649,0.052458227,-0.09267244,0.038568873,-0.01877912,-0.07883755,-0.06621192,0.034132954,-0.0548151,-0.045423422,-0.0015490266,0.029809225,0.031179884,0.0835683,0.057348378,-0.057464566,0.072380096,0.02344583,0.004752877,0.02076826,0.008959082,-0.05532636,-0.007983378,0.015281745,0.016344035,0.017641477,-0.082435936,0.04431493,0.019966884,0.054660056,0.030625354,0.01595371,-0.008574906,0.04783184,0.057387907,0.0047605406,-0.03024361,0.0034037707,-0.052073296,0.052145008,0.0028149956,-0.0047983853,-0.023556486,-0.02539033,0.009471876,0.09061249,0.0009523975,0.019327216,0.0799409,0.03203622,-0.015460288,-0.015352816,0.06538928,0.040523738,0.009783245,-0.025203515,-0.032609735,0.013646376,-0.059564505,-0.0066384263,-0.017460816,0.02050996,-0.015034797,0.0015008467,-0.0071172286,0.0055047944,0.049912732,0.070093535,-0.053703614,-0.034693535,0.044022333,0.031361606,0.0121019045,-0.0025957043,-0.035981424,0.013775352,0.0031460186,0.061287045,-0.03505708,-0.04577023,-0.021274172,0.0058961776,0.0028539016,0.05628135,0.0103603555,0.012893287,-0.028580127,-0.05184451,0.089979805,-0.019329716,0.0067647137,0.01433794,0.036150888,-0.059284233,0.010009053,0.026968595,0.00040475623,0.004047774,-0.08499563,0.019538078,0.011942616,0.0028616681,-0.06835729,0.043463163,-0.09294959,0.006060118,-0.07639944,-0.033932377,-0.056037754,0.008374387,0.014159357,-0.039080624,-0.010562553,0.032969747,0.027644757,-0.0046363384,-0.024435496,0.047364634,0.05216614,-0.020088071,-0.020661512,-0.022916134,0.058113743,-0.1211614,-0.023063485,0.010897587,-0.08325332,-0.081999764,0.040032182,0.045473106,0.014108957,-0.03816683,-0.00054796593,-0.011170639,0.06021984,-0.047747303,0.04461618,0.0075090462,-0.044047542,0.0346765,-0.025403557,0.020266073,-0.017430551,-0.004385311,0.010092456,-0.0474203,-0.038729798,0.038155828,-0.0792471,0.035035588,0.0128673185,0.009564952,0.01637463,0.045611832,-0.025541028,-0.056528874,-0.010847684,0.09013345,-0.043665294,0.049155585,-0.0037014252,0.07431136,-0.031325005,-0.00439277,-0.043425582,0.026797699,-0.012894962,-0.033882074,0.04860953,0.015106022,0.00908437,0.021246545,-0.01685505,0.03733782,-0.06588141,0.0016647947,-0.00831159,-0.0075049764,0.06273779,-0.0012997227,-0.051492415,0.019239465,0.02547073,0.012468068,-0.013680708,-0.0476611,-0.022321563,0.06360155,-0.058388565,-0.015812764,0.080634125,0.014534672,0.024894573,-0.017329358,0.017403746,-0.014853957,0.019306513,0.019264597,0.0033951649,-0.03926164,-0.04374174,-0.11626777,-0.0057082265,0.047226235,-0.05465126,-0.017068237,-0.011309531,-0.019349778,-0.013756533,0.04909477,0.07991859,0.07446772,-0.017915234,-0.009497585,0.0021721732,-0.0023771706,-0.09911236,-0.115792304,-0.0013258315,0.022184137,-0.07800134,-0.024403214,-0.010888828,-0.004588098,-0.005753131,0.041751496,-0.03685458,0.021317214,-0.028280154,0.0025962766,0.016717125,-0.0066697453,-0.06834699,-0.030923318,0.018972088,-0.054779924,-0.0072166636,-0.032157656,0.0002033601,0.035513107,0.037880246,0.02374308,0.01664935,0.0277522,-0.009739705,0.09117615,0.0034160742,0.00028842886,-0.0013418611,0.01398243,0.036414366,-0.0120141795,0.037856642,0.017785057,0.040471725,0.03753261,0.06119341,-0.095696725,-0.02331516,-0.015472282,-0.03704502,0.0011465664,0.019729013,-0.0072040786,0.028614031,-0.062564835,-0.031233644,-0.008102221,0.020235065,-0.051274084,0.0017131849,0.02828706,-0.01907874,0.026441531,-0.05874674,-0.04739151,-0.034832854,0.03443958,0.013769537,0.016984718,-0.044075012,-0.007919058,0.0107375905,-0.07172514,-0.0006142403,0.026046226,-0.038556214,0.011558234,0.0238775,-0.009387818,0.0085409265,-0.0019439397,-0.009349278,-0.03467117,0.057968903,0.052564662,-0.007862118,-0.10287877,-0.0030033789,-0.0153355915,0.019596372,-0.036322515,0.027212374,0.0080539575,0.013393392,0.11679703,-0.012008112,-0.07507258,-0.027509432,0.02867519,-0.007754743,-0.10007905,-0.037563067,-0.0028723597,0.0019153734,-0.014019146,0.024730979,-0.044968728,0.053716194,-0.005437747,0.03167843,-0.024472848,-0.14377183,0.022351753,-0.039786812,-0.0012572551,-0.10464864,0.0023877136,0.0013142513,-0.051734753,-0.008562919,-0.09132317,0.022322515,-0.030701814,-0.11003941,0.122709446,0.06280694,0.011323362,-0.0051217377,0.021752607,-0.027996315,-0.00036319208,-0.023468854,0.043698613,-0.036683913,-0.017223496,-0.03924551,0.06064719,-0.011925482,-0.034817316,0.021206051,0.08661302,0.012307231,0.014613309,0.011091757
matt_leblanc,0.0088613825,-0.056684148,0.020628812,0.031635,0.06856148,0.021245908,0.03479127,0.022613516,-0.03580998,0.102599196,-0.0054496042,0.03562914,-0.041009214,0.026864704,0.045961052,-0.04278558,-0.08038041,-0.033554308,0.021599947,0.0010000725,-0.013539167,0.1059696,0.039933294,0.03253655,-0.02010911,-0.03692297,0.015726373,-0.01510621,-0.07504582,-0.07074102,-0.005293795,0.0019084739,0.02283973,-0.008856052,0.073366165,-0.035314918,0.061053827,0.038812555,0.017963095,-0.116870254,0.038607687,0.07794152,0.067470714,-0.01120427,-0.020855516,0.029287858,0.010839824,-0.075005606,-0.040264525,-0.0004481545,0.069221616,0.021742595,0.03370921,-0.0044966205,-0.069139406,-0.04388425,0.027871488,0.011002825,-0.08605713,0.057451304,-0.05164604,-0.018544279,-0.0066273203,-0.08574242,-0.018715613,-0.018564286,0.04124147,-0.013864263,0.1433154,0.024532655,0.062128525,-0.026790265,0.030732734,-0.0051646624,0.011841434,0.06846555,0.071672045,-0.02472542,-0.02174479,0.09516139,0.016089663,0.053279016,-0.0053249323,-0.024079138,-0.023699261,0.05026399,0.03138051,-0.04731216,-0.052755088,0.02208492,-0.0656213,0.06843397,0.013630321,0.010439226,-0.047466315,-0.038816795,-0.029673586,-0.029132769,-0.053809404,-0.012640794,-0.043116402,0.08921544,0.06348118,-0.010170095,0.0342777,0.013612111,-0.046875652,0.0029120687,-0.0016423904,-0.045123097,-0.01043707,-0.02546575,-0.059501935,-0.01862771,-0.00096466264,0.007878081,0.06228191,0.04076034,0.021612609,-0.007866199,-0.041057635,0.017975861,0.032951005,-0.009200888,0.021128166,0.067947246,-0.053187024,0.013120899,0.039142232,-0.014386181,0.0141033335,0.012654734,0.04314051,0.0067950487,-0.017705113,0.011196836,-0.054412898,0.02887639,-0.014650606,-0.0016865262,-0.051593706,0.033463087,0.069998175,0.028069943,-0.05890849,0.07586619,-0.100269265,-0.009097109,0.09082328,-0.013233346,-0.036278274,-0.051013693,-0.0518807,0.00057891995,-0.063247755,-0.010166094,0.007325868,0.096944675,-0.0633173,-0.0066413134,-0.025092898,-0.008642978,-0.02877963,-0.025803274,0.05159543,-0.010086037,-0.07257859,-0.045631334,0.06730345,0.05628231,0.002675435,-0.019261522,-0.08700876,-0.015843036,-0.017811352,-0.051413864,0.079669684,0.003447012,-0.011571822,0.010594835,-0.054137424,0.070735134,0.048670564,-0.06455356,-0.033688523,-0.07472153,0.039927546,-0.042818032,-0.007827435,-0.02328007,0.05135653,0.0035971173,0.04226141,0.055157173,0.01543923,0.0404861,0.046833493,0.008693893,0.004726485,0.09834545,0.016114261,0.05172796,0.0073032975,-0.010885238,-0.029902326,0.1156772,-0.0029972824,0.012309254,-0.03163921,0.033627186,-0.015423833,-0.010752031,-0.0822219,-0.002366971,-0.019112047,0.028113717,0.02732907,-0.058859624,-0.010755527,0.01603483,0.0041494346,0.026201604,0.07952498,0.015450427,0.01755639,0.008706667,0.01905262,-0.01526062,0.08493083,0.076530784,0.060049225,0.024340576,0.024401577,0.0428594,-0.003949347,-0.0043327003,-0.03264633,-0.03453731,-0.019174378,0.04398523,-0.005220434,-0.04379482,0.006486364,0.031508386,0.024181483,-0.019474987,-0.0052686683,0.04544935,0.021646596,0.020225411,0.057084933,-0.0030279213,-0.025997337,0.0061281337,0.040982656,-0.06367653,-0.0069661615,0.013077406,-0.048432134,-0.073626965,0.050595056,0.031437106,-0.004077138,-0.011654545,-0.038274366,0.04065289,-0.0371855,0.006979079,0.07240566,0.09347173,-0.057359044,-0.005454818,-0.018357625,0.008609817,-0.024749678,-0.040687736,-0.07561196,-0.013137668,-0.021400413,0.00807418,0.0033905893,0.064551495,-0.041362375,-0.07486096,-0.060428686,-0.026290482,0.019513035,-0.024826352,-0.0032554106,-0.01766539,-0.030210046,0.009609017,0.035380162,0.00039260794,0.0033555145,0.010907211,-0.0110424,0.019463537,-0.09976153,0.002388757,0.020010805,0.039761525,0.021055035,0.013810091,0.018383753,-0.08931894,-0.067147054,0.01069141,-0.042255487,-0.037907872,0.07303241,0.05461593,-0.040825907,0.030801436,0.046909153,0.021707425,0.045909826,0.041088063,0.009606054,-0.016412271,0.071086526,0.0022336545,0.08051143,-0.012401553,0.076938614,0.029983781,0.00952672,-0.069938585,0.048475873,-0.057655998,-0.00097275886,-0.016551293,0.0070281033,0.04942489,0.0065663424,0.012588005,0.0004390816,0.030254653,-0.032282516,-0.010876282,0.07497391,0.028563432,-0.011205422,-0.009943222,-0.0035871298,-0.063803844,-0.04793583,0.030259425,-0.03131099,-0.008203588,-0.036556687,-0.010829585,-0.05387207,0.03681942,0.02819997,0.04423052,-0.031657256,0.023710942,-0.06429962,0.032523613,0.10274167,0.06411362,-0.007722906,0.036574706,-0.06744687,-0.036126442,-0.053599417,0.032626122,0.046111036,0.018537618,0.004612362,0.054990698,0.008512706,-0.01807141,-0.041145977,0.0037077386,-0.05148082,-0.054570395,0.078934856,0.015491028,0.011725959,0.0628437,0.02596393,-0.05009843,-0.026481213,0.047123175,0.038125105,-0.021227451,0.034372125,-0.059993938,-0.0101618655,-0.0019363792,-0.00079825695,-0.0471433,0.09402361,-0.010533563,0.0070724133,-0.008270045,0.040772054,0.07637763,-0.056150857,-0.013011573,0.006610237,-0.052417006,-0.016255455,-0.05321369,0.077645786,-0.021294551,0.014931066,-0.016428664,-0.013542788,-0.039205384,0.015787628,0.033388644,-0.050578427,-0.016756933,-0.10527818,-0.08393908,0.01069114,-0.0042434894,0.030292064,-0.025734888,-0.048816558,0.024435472,0.036495347,-0.021575212,-0.04378474,0.033789247,0.0013949738,-0.046132624,0.009181389,0.013098856,0.029314931,0.007326003,-0.042014513,-0.11700424,0.04859974,0.022775853,-0.051310446,-0.09477799,-0.10166656,-0.102326386,0.026321486,-0.024054203,-0.01442602,-0.0048454106,-0.0072180927,0.018908296,0.013362222,-0.056007072,0.0029746739,0.050697505,0.0035999476,-0.019553153,-0.045294747,0.012189637,0.006644831,0.060652357,-0.014634236,0.011601823,0.013353454,-0.032410316,-0.023712238,-0.018601075,-0.064446025,-0.04926847,-0.050106052,-0.002813774,-0.040661626,-0.080605716,0.032481946,0.046536006,-0.0338226,-0.041007254,-0.031319194,0.027938543,0.03777923,0.002108168,-0.037337977,-0.0011322395,-0.06728496,0.052921213,0.03157401,-0.084286876,0.024698902,-0.022092033,-0.028580071,-0.082984835,-0.030474957,-0.003628494,-0.021634571,-0.04816788,0.016733978,-0.014348251,0.043841146,-0.022688877,0.05761308,-0.030836426,-0.08491155,0.069601774,0.04852657,0.010872671,0.005883311,0.0681072,0.066851154,-0.06251609,-0.0013259293,0.0339148,0.02655657,0.07669358,-0.085214175,-0.11127264
matt_leblanc,0.010125426,-0.06863024,0.0018411347,0.011301067,0.078844234,0.038593214,0.015142129,0.012427647,-0.04948014,0.05196306,-0.0033972238,0.022710877,-0.04036433,0.04703151,0.1107404,-0.025274305,-0.037816186,0.015004386,0.011816215,0.005555117,-0.014936824,0.079604045,0.021263225,0.033051748,-0.013002388,-0.06481133,-0.020548288,-0.019436052,-0.06628314,-0.03576131,-0.025587944,-0.021326333,-0.0005645727,0.032837864,0.055520702,-0.040133353,0.022905648,0.029262416,0.01809188,-0.05966157,0.036595263,0.06904318,-0.010116787,-0.020431682,-0.022697225,0.039798312,0.03790914,-0.09022019,-0.024715746,0.019758267,0.03598151,0.024454452,0.02573732,-0.025168383,-0.08945665,-0.05776549,0.039480247,-0.062251735,-0.06970415,0.047679193,-0.08520746,0.017009297,-0.0027241071,-0.061895587,0.0071993372,-0.036783583,0.013664872,-0.023236537,0.09111207,-0.008519236,0.021593818,-0.0017100177,-0.009219633,-0.054959722,0.04838857,0.066483594,0.0649702,-0.032974154,-0.00621898,0.05060464,-0.0047655734,0.00035763034,-0.013211326,-0.00865558,0.017797345,0.0028440468,0.028173903,-0.02201966,-0.06420014,0.0116388975,-0.022560647,0.05905478,0.0011363059,-0.0072709895,0.0016208316,-0.0750935,-0.049567305,-0.049858507,-0.054190457,-0.006750206,0.007098705,0.115736604,0.0780743,0.020433761,0.03269214,0.0038667298,-0.07304127,0.0198948,-0.006186503,-0.031269807,-0.037586883,-0.016794182,-0.059868146,-0.0005361891,-0.057386126,-0.0019350719,0.020279037,0.056891035,0.020437125,0.0070752264,-0.030675024,0.0097951675,0.025790779,-0.024147354,0.049573798,0.092346154,-0.048393086,0.0068576285,0.03327679,-0.041626997,0.006111458,0.003146942,0.02429133,-0.0036304593,0.026899366,0.028483748,-0.028542913,0.024055751,-0.03915025,-0.0048194095,-0.04499666,0.07116574,0.029608764,0.009583807,0.0051038936,0.056217603,-0.12041499,-0.018407503,0.075706765,-0.009391798,-0.04484383,-0.06808348,-0.023487745,-0.012354679,-0.010874273,-0.00037838332,0.04702588,0.10841581,-0.026262403,-0.013841265,-0.08146127,-0.02332897,-0.07094905,0.021266837,0.03664934,0.009343918,-0.040985744,-0.007620764,0.024876332,0.008052364,0.023905156,0.023288041,-0.046995435,-0.011529753,-0.009711433,-0.030723013,0.06265238,-0.02337634,-0.051529083,0.035159543,-0.029945599,0.03538283,0.0328915,-0.030550074,-0.03116256,-0.05982209,0.034261934,-0.025599211,-0.03981735,-0.06977835,0.029350955,-0.035589304,0.09196033,0.05169378,0.002894975,0.010485707,3.745023e-05,0.02540415,-0.014081345,0.10035191,0.0065971813,0.047783356,0.028476082,-0.021595005,-0.038246274,0.09118931,-0.031726494,-0.0043272483,0.008880612,0.054788888,-0.02136909,-0.024865173,-0.10228445,-0.0074304957,-0.0134129105,0.002255624,0.026865058,-0.053814832,0.052542254,-0.014702546,0.035655703,0.04909103,0.04146883,0.015291849,0.072799444,-0.0041271565,0.020600926,-0.03462156,0.023561582,0.11260542,0.012870111,0.035858516,0.01725019,0.018694395,0.057550777,-0.033484,-0.0019237368,-0.041643128,0.007757241,0.04830373,-0.02073752,-0.07635473,0.014962203,0.009974527,0.01289576,-0.0021053848,-0.0006141511,0.046956822,0.034954537,0.034828223,0.07379276,-0.0022827308,-0.041598074,-0.015733749,0.047509488,-0.055777706,0.031902615,0.017746944,-0.057174575,-0.06663333,-0.007142017,0.031017354,0.019508237,-0.016266331,-0.020675037,0.016747355,-0.033399463,-0.04520503,0.031905618,0.06470142,-0.07871652,-0.027032875,-0.0070490157,-0.020682966,-0.055187967,-0.056586586,-0.10629367,-0.05974517,-0.059641585,-0.016446777,0.011190216,0.04509204,-0.009826331,-0.009052807,-0.07877115,0.016786076,0.011915908,-0.0820447,0.010225102,-0.030699654,-0.06405817,-0.0053623538,0.07627146,-0.03844179,0.022775786,-0.03982284,0.009654875,-0.007188088,-0.07997179,-0.006488626,0.040175088,0.008418939,0.0060433755,0.010820698,0.0017576254,-0.06206348,-0.052457944,0.011049277,-0.038719967,-0.028397016,0.019722529,0.04007274,-0.03942115,0.020958848,0.059171464,-0.019461414,0.021069884,0.028409969,0.009292503,-0.012973642,0.06053157,0.023037458,0.053432852,-0.072608545,0.089150615,0.02069743,0.028504487,-0.026992429,0.056782316,-0.021666337,-0.035015292,-0.022938294,-0.008921524,0.035191346,-0.03748875,0.011755019,-0.008808625,0.015312582,-0.06418842,0.03441992,0.0117802685,0.020007892,0.01895982,0.032441802,0.023177624,0.0005833967,-0.004410951,0.034440506,-0.057852853,-0.020885892,-0.052040894,-0.014964956,-0.061804436,0.018486487,0.05672166,0.0139690805,-0.0311566,-0.011993315,-0.0665655,-0.010818023,0.09028772,0.038635917,-0.049528684,0.054056596,-0.076582454,-0.011934425,-0.034902144,0.048827346,0.020307718,0.023630904,-0.012956246,0.049183145,0.053750873,-0.02991771,-0.05693252,-0.043739866,-0.04332166,-0.07001458,0.03725836,-0.009411881,-0.007748615,-0.022603204,-0.022570243,-0.04179036,-0.04341703,0.06338902,0.015407937,-0.004837661,0.06941477,-0.04551186,-0.024961224,0.059613265,0.0028478745,-0.03820707,0.066652946,0.023632577,-0.027382977,-0.04587807,0.03348256,0.081113204,-0.047527228,0.027001176,0.0058136913,-0.05981725,0.00554339,-0.055128958,0.06868623,-0.0052291555,-0.0146399215,-0.037106663,-0.04785759,-0.0133674545,0.03326755,0.047668956,-0.04986241,-0.05547955,-0.07794487,-0.104652345,0.06363763,-0.036494065,-0.022395065,-0.06440148,-0.106584765,0.021231547,0.06743257,-0.03187944,-0.01969516,0.012340705,-0.027952667,-0.010348062,0.028523186,-0.009721307,0.01704378,0.0040415972,-0.00032632728,-0.12682267,0.07744931,0.0010068483,-0.061181713,-0.122203775,-0.071727976,-0.09811339,0.044147603,-0.03191167,-0.0024933307,-0.013965242,0.023695651,-0.0029925704,-0.011542459,-0.027022798,-0.03843814,0.05792392,0.034316115,0.012961311,-0.027256068,-0.003996935,0.021000646,0.08826112,-0.022507077,0.042090494,0.00943975,-0.009658777,-0.03962508,-0.07143525,-0.018965092,-0.029132018,-0.039351165,-0.014143478,-0.019624645,-0.06113162,-9.8885685e-05,0.008062698,-0.038838144,-0.004439385,-0.024202425,-0.017083274,0.027922519,-0.028867517,-0.030204047,-0.011956225,-0.039149627,0.03153451,0.03994382,-0.11583167,0.035379283,0.032040212,-0.022069106,-0.15144348,-0.011669464,0.04500833,-0.04761069,-0.07184815,0.03409962,0.01568716,0.012699962,-0.043404963,0.04802097,-0.024935922,-0.055288937,0.106232375,0.03262436,-0.0071527557,0.044867177,0.033750802,0.07329437,-0.033435233,0.023637861,0.07830937,0.019239083,0.04746239,-0.10003874,-0.097682565
